-0.00295831 -0.012226166 6.658912E-4 -0.03438538 0.0702947 -0.0979063 -0.011656533 0.007583255 -0.026580153 0.0541781 0.0816182 0.004907824 0.01826924 0.00822438 -0.00790256 -0.04844507 -0.049353242 0.015026836 7.508146E-4 -0.027150776 -0.053918272 0.021879332 0.0625602 -2.488577E-4 -0.021661216 0.007057305 -0.0036925182 0.05704484 -0.03298413 0.022194037 0.064755335 0.04100878 0.077799365 0.066251606 -0.009994991 -0.059534848 0.046897784 -0.021411492 -0.0011389002 0.051480148 0.013126739 0.0046177465 0.026551709 -0.028764438 0.009542874 0.00900471 -0.001205564 -0.05111723 -0.082136 0.07711868 0.0083199935 -0.0030539068 -0.023258388 -0.015773313 -0.020213202 0.03860353 -0.047896583 0.043210227 0.03377824 0.024875697 -0.0063115745 -0.019233609 -0.03865698 -0.051046107 0.0029347278 0.047354396 -0.0468869 0.07324446 0.008799624 -0.05687768 0.004975014 -3.10155E-5 0.013798318 -0.010088833 0.068320096 -0.004493959 -0.0077537806 0.02053728 -0.06561106 0.012130521 0.0030205676 -7.8792695E-4 -0.033512097 -0.032684244 -0.0023021677 -0.00566687 -0.055214483 0.08383681 0.005609036 -0.03927239 0.061997015 -0.005833111 -0.039133195 0.03195856 0.030347513 0.016084623 -0.014858081 -0.0102748 0.03553408 0.008988455 0.008810915 0.008267563 0.007990855 -0.038362153 -0.013896792 -0.0048845573 -0.06452246 0.08781582 -0.04977649 0.009260872 0.0062555736 0.0120378025 0.04105723 0.017831137 -0.013452794 0.05824872 -0.019998893 0.031272776 -0.018097468 0.020975882 -0.042679958 0.022858515 0.004309686 -0.08001817 0.042382337 -0.011261556 0.04558664 -0.024578132