0.015149001 -0.01960946 0.022731273 -0.060407434 0.108555764 -0.13563381 -0.047786407 0.015358398 -0.035535514 0.08618586 0.12483043 0.012197039 0.016017193 0.008350697 -0.017998736 -0.055011064 -0.055456106 0.015845552 0.007587294 -0.06454557 -0.0581417 0.03569975 0.075840116 -0.0035189714 -0.020739326 -0.0030475038 0.0035657964 0.089815944 -0.049868874 0.03250157 0.10325986 0.048057668 0.11149066 0.09610752 -0.0223782 -0.08177145 0.070656516 -0.05541528 4.3890777E-4 0.092771105 0.033349015 0.009135063 0.035903282 -0.032281328 -0.00450164 0.023824677 -0.005284717 -0.06398664 -0.09317325 0.1025986 0.02615359 0.015561939 -0.044033 -0.032524 -0.014733729 0.042844616 -0.05285546 0.080902316 0.0484419 0.019759247 -0.0014242034 -0.023700953 -0.06415683 -0.07254073 0.0042207823 0.0766896 -0.08010738 0.095292225 0.008250604 -0.076521546 0.01642342 0.0028865403 0.030986862 -0.005067933 0.10173755 -0.014162409 -0.0013064226 0.033722777 -0.08596939 -0.002870912 0.016513396 -0.015149706 -0.022507943 -0.047701936 0.009083991 -0.025592286 -0.078908555 0.11813776 0.0051354785 -0.068250716 0.094797105 0.008174483 -0.06360033 0.055817958 0.021670861 0.020991066 -0.0065591782 -0.0034750444 0.04287787 0.027186487 0.0045081223 0.013517157 0.023735633 -0.05782624 -0.020593556 -0.011830643 -0.055630956 0.119939215 -0.07289632 0.01857571 0.01138049 0.025835432 0.050986208 0.010601812 -0.021187518 0.06651931 -0.011791276 0.055630244 -0.011275814 0.05116684 -0.06685191 0.07565273 -0.027012609 -0.104006894 0.050747003 -0.025057245 0.09807789 -0.004478858