0.0044586896 -0.011451466 0.0015084286 -0.03595942 0.05586384 -0.05874133 -0.030988112 0.0074810837 -0.020831842 0.037952837 0.064003035 0.007219166 0.011852315 -5.395794E-4 -0.023884892 -0.032046724 -0.026323132 0.0046306257 0.003274208 -0.035805345 -0.03234627 0.010756636 0.032262262 -0.0072949464 -0.016304938 0.008611 -1.8271664E-4 0.036557965 -0.018151222 0.04218646 0.04922151 0.015404001 0.0667999 0.042742338 -0.015245155 -0.04635668 0.037018064 -0.021195156 0.0077769645 0.053286884 0.012030049 -0.0029231864 0.020551603 -0.023996841 -0.008181874 0.017016651 -0.0123072695 -0.043777805 -0.04955258 0.03375861 0.011092533 0.013168974 -0.022138664 -0.022140343 3.2644003E-4 0.013173946 -0.026689999 0.02633798 0.015085635 -0.007561148 -0.0051825205 -0.017684784 -0.03465694 -0.02592498 8.089086E-4 0.036776368 -0.043770693 0.045209326 0.006558786 -0.041129567 0.0038669163 0.0039682263 0.021856055 -0.022830948 0.045918893 -0.014729147 -0.005565337 0.013366365 -0.06282065 0.008759288 0.0060684215 0.0037406385 -0.02340242 -0.01976345 -3.3307393E-4 -0.024594842 -0.035396736 0.061712842 0.0014782046 -0.029208697 0.044782046 -0.0016624138 -0.018095965 0.01440504 0.0030369104 0.010930148 -4.1005458E-4 -0.007278068 0.025716655 0.011620425 0.007909319 -0.00305464 -0.0014437797 -0.03169891 -0.013249681 -0.015041718 -0.03955873 0.06470418 -0.043723922 0.015060774 -1.8869482E-4 -5.6300446E-4 0.023065757 0.01049163 -0.016583836 0.03865539 -0.029446118 0.021601887 -0.004585569 0.017496549 -0.04434712 0.024666015 -0.009989475 -0.053681474 0.022283694 -0.02538011 0.039688963 -0.016604695