0.029685235 -0.0132441865 -0.006424441 -0.04045562 0.07179124 -0.09693069 -0.030483477 0.0049013714 -0.041575335 0.06804573 0.09143256 0.0017815016 0.01844712 -9.888357E-4 -0.02459063 -0.053884476 -0.044267066 8.6903386E-4 -0.011111959 -0.050791748 -0.0508245 0.010773343 0.048055995 -0.02295752 -0.011055356 -0.005847901 -0.004341185 0.062147394 -0.033942785 0.014405077 0.07702317 0.030308846 0.07514558 0.05485182 -0.016623806 -0.07247348 0.045743905 -0.04297601 -0.016488343 0.06870337 -0.001541453 -0.0046635885 0.02912412 -0.038233854 -0.0067461547 0.01674281 -0.010391157 -0.055396866 -0.06832253 0.07632247 0.0016046613 0.003606701 -0.039010003 -0.02024796 -0.010644559 0.050112493 -0.046122953 0.049398944 0.026423754 0.011546082 -0.008267879 -0.02103579 -0.03822393 -0.052003957 0.0037854214 0.031393457 -0.059943985 0.0680127 -0.006359018 -0.05765425 0.0103509035 -0.0024384013 0.024842368 -0.018857928 0.06342724 -0.00818327 6.968049E-4 0.013293813 -0.05682472 0.003824436 4.9086026E-5 -0.012599938 -0.025057947 -0.026099652 -0.0021535929 -0.025560433 -0.057997104 0.088004924 9.642466E-4 -0.059709523 0.057092052 -0.01113338 -0.03673963 0.02213373 0.008429866 0.013702817 -0.007803247 -0.014884035 0.025219189 0.0102089085 0.010056035 0.01750516 0.0028620379 -0.032660045 -0.01911595 -0.019689087 -0.06974183 0.083044104 -0.051336505 0.004324703 0.01783409 0.0038488628 0.020395651 0.016118819 -0.020377446 0.056786995 -0.025128836 0.03625734 -0.014748065 0.021719113 -0.054795723 0.027388878 -0.012752095 -0.06355729 0.04245207 -0.02976661 0.049922697 -0.016217222