0.0299611 -0.01870006 -8.8925904E-4 -0.0421445 0.073352166 -0.09929944 -0.03576095 0.0041362573 -0.032527413 0.05867485 0.08814572 0.016566928 0.0032821428 -3.637601E-4 -0.013345913 -0.051620696 -0.05687816 0.014243011 -0.012811383 -0.0378038 -0.046345226 0.018329475 0.05870732 -0.0031566718 -0.0050248047 -0.0025174643 0.00649614 0.06397523 -0.04283915 0.028635655 0.06926264 0.024473637 0.0670061 0.07369812 -0.0072471257 -0.05725227 0.046434063 -0.035560712 -0.024298921 0.07305512 0.00302931 -0.0056048185 0.030727524 -0.034415215 3.906415E-4 0.01825189 0.002949371 -0.049384683 -0.079025656 0.075665265 -6.035915E-4 0.005988004 -0.031957652 -0.011766165 -7.551249E-5 0.03575307 -0.037262388 0.04448234 0.03506792 0.010834294 0.0019702027 -0.013921422 -0.041821405 -0.059311625 -0.0019867613 0.050766706 -0.05023464 0.058755383 0.018762905 -0.059643347 0.013060606 -0.001989814 0.01673103 -4.805321E-5 0.061537456 -0.0059209447 -0.0052896496 0.019452432 -0.054934915 -0.004976012 -7.8336516E-4 -0.0010690538 -0.02083827 -0.04882585 -0.0073090745 -0.024710448 -0.05303984 0.08091733 0.014596502 -0.03270125 0.07359888 0.00900117 -0.028262079 0.025481006 0.009366292 0.022652201 -0.02907536 -0.009050764 0.023930537 0.011403454 -0.0054443954 -0.0014593912 0.013190878 -0.04644264 -0.008871968 -0.013877318 -0.057381 0.08077291 -0.040386092 0.0036394752 0.02168819 0.0051035387 0.034785666 0.013073827 -0.01308242 0.06542948 -0.011747941 0.02501319 -0.02697126 0.013567505 -0.052260134 0.033513397 -0.0033573096 -0.064824626 0.038933128 -0.0060917456 0.07693377 -0.025767239 0.055952415 -0.08344353 -0.05363091 0.017729372 0.07203559 -0.035872497 0.035421498 -0.004028499 -0.027370565 -0.03105607 -0.06770283 0.06416885 0.033497475 0.06684159 0.03748063 -0.04124964 -0.012228395 -0.094815396 0.064721495 -0.04070309 0.04738191 0.0065186764 -0.039628692 -0.007181016 0.0068793083 -0.05503125 -0.010425371 -0.03646613 0.048299666 0.026284903 -0.052863248 -0.02786487 0.012216823 4.234509E-4 0.08357521 0.03817603 -0.016311636 0.028138384 0.046577066 0.012191563 -0.011294421 -0.052419335 0.056145918 0.053265613 -0.03971331 -0.01997278 -0.08352834 0.009500933 0.032670114 -0.07001676 0.029486544 -0.007621566 -0.008259106 0.02974379 0.002527388 -0.012094734 -0.02613446 -0.017193591 -0.064275056 -0.034068897 0.06485526 0.009922655 -0.094001934 0.0044383677 -0.02460798 -0.07503791 0.049415693 -0.0041932105 -0.0146080395 0.010869235 -5.71189E-4 -0.024721226 -0.02183679 0.016344436 0.009738955 -0.05531161 0.005127313 -0.035142742 0.021358723 -0.056359563 0.014925319 -0.04140075 0.031307306 0.013070766 -0.068303734 -0.08390479 -0.017134385 -0.012323366 0.032221846 0.019185225 0.015352789 -0.0057761357 -0.08106459 0.010444174 0.070784904 -0.06904236 0.04332019 -0.002624318 -0.05249374 0.054432474 0.059324354 0.012738357 0.06019496 -0.0564114 -0.025630923 0.044850197 0.0112584075 -0.047430184 0.04533212 0.026353555 -0.03697822 -0.03208907 -0.05406372 -0.023992576 0.009535424 -0.021211933 -0.014752635 -0.094275706 0.09107529 -0.049422543 -0.002061732 -0.07331896 0.012674574 -0.0010306562 -0.08441079 0.02219985 0.016562892 -0.010760872