-0.003051032 -0.014742898 0.0022672769 -0.03250809 0.047470853 -0.07536221 -0.029969793 0.0025100622 -0.016583255 0.03549364 0.06464654 0.0021272544 -0.00380276 0.002322522 -0.01286537 -0.044096977 -0.04800003 0.009607607 0.0043517672 -0.042409956 -0.043375008 0.0016264193 0.038770705 -0.01757415 -0.019382963 -0.010546434 4.0527154E-4 0.040235363 -0.030002562 0.017139144 0.053979885 0.021121735 0.056677993 0.044820037 -0.016534831 -0.045915667 0.03745554 -0.025020257 -0.0043078386 0.04036569 0.011188727 -0.00852456 0.016461466 -0.030525636 -0.011864066 0.0056786407 -0.002764809 -0.031201009 -0.0600071 0.058055673 -0.0053424053 -0.0034660802 -0.026191268 -0.019708058 0.0017754913 0.010425011 -0.035035443 0.035403937 0.005659431 0.010025755 -0.014056668 -0.0154388165 -0.030261742 -0.048630178 -0.01014069 0.024231134 -0.043469578 0.038596343 0.015599777 -0.03886515 0.0015087099 -0.004123314 0.01282999 -0.01918821 0.04920074 -0.010980436 -0.013745333 0.0061874287 -0.040986247 -0.009719074 0.009124778 -0.016004728 -0.016776605 -0.021725101 0.004894142 -0.026784735 -0.040739127 0.056219302 0.008834899 -0.026553392 0.04009837 -0.008038592 -0.02622211 0.014696553 0.00499555 0.010614247 -0.011764526 -0.003800054 0.025707303 0.006352589 -0.0025866579 0.008737767 -0.0016238703 -0.028193433 -0.01176638 -0.011213875 -0.04094855 0.049633846 -0.035220478 9.5799053E-4 0.0014766421 0.0039555714 0.021758346 -0.005650133 -0.02135791 0.01931146 -0.016476536 0.029534318 -0.01025324 0.020979423 -0.040049467 0.027408006 -0.01163895 -0.056237023 0.031920932 -0.015891029 0.037559766 -0.015047503 0.023157485 -0.053575784 -0.04881902 -6.8543333E-4 0.04164031 -0.019204406 0.03813501 -0.011891247 -0.020283878 -0.02143246 -0.042352576 0.041656256 0.016459255 0.04604395 0.017800175 -0.038729418 -0.024124838 -0.068721935 0.04595335 -0.03786559 0.019012809 -0.0052424124 -0.03406156 -7.5933075E-4 3.4670127E-4 -0.036077153 -0.010148553 -0.041468065 0.030460503 0.028817182 -0.044304833 -0.026910782 -0.0021450438 -0.014033545 0.05522454 0.03209499 -0.023930645 0.016539266 0.0441258 0.0039107096 -0.030032868 -0.042881113 0.048570633 0.039521497 -0.032619648 -0.005488596 -0.06359605 -0.0069712177 0.030105155 -0.061385326 0.010860192 0.00271335 -0.013998795 0.020053472 -0.009042749 -0.011425315 -0.016215673 -0.005700087 -0.043640215 -0.026843643 0.044511 -0.006861459 -0.056915876 -0.0025341988 -0.031142844 -0.05527606 0.025917066 -0.009999646 -0.01755437 -0.0062308246 0.0013891915 -0.017439257 -0.027550353 0.012324305 -4.1499737E-4 -0.050877243 -0.00934854 -0.014123334 0.003388083 -0.04685152 0.008478676 -0.030649882 0.01823581 0.006249268 -0.061729763 -0.061855435 -0.012852121 -0.01076401 0.01884892 0.004886062 0.009916066 2.4162202E-4 -0.052576195 0.00889448 0.046567827 -0.04954441 0.026754022 -0.00963076 -0.04708972 0.044680353 0.027298141 0.010712011 0.041173194 -0.038833875 -0.024934875 0.029696839 0.004656042 -0.032411996 0.021057583 0.020733966 -0.02223161 -0.025632503 -0.05851276 -0.014681473 0.0030369875 -0.021815976 -0.013209749 -0.06594889 0.055329043 -0.043284338 -3.1900356E-4 -0.056685083 -0.005765113 0.0089349 -0.048140272 0.010150524 0.015815653 -0.005358354