0.08703953 -0.010172424 0.012798187 -0.08828824 0.24709472 -0.2496871 -0.0781479 0.040943492 -0.06929178 0.20112573 0.27368858 0.06277604 0.06568217 0.027562851 -0.039470825 -0.14612167 -0.11499637 0.051718857 0.019760268 -0.121825516 -0.12622793 0.066116884 0.16524501 -0.01823362 -0.02899663 0.032750763 0.05336029 0.22961551 -0.09788383 0.07452692 0.24814664 0.12005516 0.2701281 0.19815633 -0.024939215 -0.17324473 0.15709119 -0.08492137 0.001256396 0.2328141 0.03896328 0.020505562 0.08242692 -0.052643582 -2.945398E-6 0.07405241 0.016527805 -0.113182224 -0.20429446 0.23818073 0.03821334 0.032384787 -0.082668185 -0.03893246 -0.022398366 0.14758305 -0.09869587 0.15337782 0.12568766 0.06754691 -0.010489253 -0.05481667 -0.093176566 -0.1138733 0.009257716 0.15246962 -0.13329592 0.20773992 0.05535637 -0.15146944 0.07494419 0.035781804 0.08265627 -0.027893892 0.22958462 0.0061649494 0.03264292 0.094243884 -0.16613962 0.004530843 0.019363398 0.0039865286 -0.037456516 -0.09334048 0.039436273 -0.06060856 -0.14487949 0.27668297 0.031189403 -0.12836513 0.2149338 0.02282149 -0.09552454 0.08922904 0.05438443 0.082624994 -0.01454441 -0.038206797 0.10825491 0.08857384 0.034917273 0.054206897 0.048944704 -0.090855174 -0.025032785 -0.026827203 -0.14195146 0.27857488 -0.10945303 0.028259758 0.041918445 0.03951347 0.12699665 0.02109868 -0.019141048 0.17755835 -0.0480226 0.17665233 -0.05707478 0.10479702 -0.11956288 0.14095673 0.0019511033 -0.20677212 0.114577234 -0.015843047 0.1978907 -0.027928593 0.17300965 -0.19655132 -0.13451587 0.04021462 0.21948808 -0.07264487 0.12668239 -0.019407215 -0.0903055 -0.051611632 -0.17927419 0.206011 0.16070332 0.24186373 0.11682369 -0.14511806 -0.032929014 -0.2602809 0.1839475 -0.09608863 0.14826268 0.04575709 -0.101069756 0.0092365295 0.031049827 -0.13570163 0.0065628556 -0.09011652 0.19008483 0.07822194 -0.13017306 -0.054952346 0.06871429 -0.00913791 0.26744178 0.13687716 -0.030596279 0.09457701 0.17665246 0.05399788 -0.058821566 -0.13617286 0.20364572 0.20616408 -0.09331844 -0.026666677 -0.21736537 0.03349185 0.14705758 -0.1909442 0.08649189 0.012146873 -0.021700678 0.094855666 0.019701747 -0.023226082 -0.02889444 -0.027250336 -0.19535698 -0.07761823 0.21547769 0.042445865 -0.23458576 0.0041185063 -0.0618012 -0.18918681 0.13000186 -0.010590153 0.001212679 0.016320145 0.021746881 -0.055612314 -0.027024498 0.05872908 0.043493085 -0.11765367 0.03496095 -0.07639757 0.052515525 -0.20267005 0.05039106 -0.10978545 0.08224475 0.037141033 -0.20858864 -0.24467133 -0.0045859655 0.030788573 0.08235665 0.04890085 0.049721725 0.02253509 -0.22934043 0.06367933 0.19316548 -0.1621507 0.15860632 0.004634032 -0.16795422 0.2138253 0.16923566 0.070541166 0.2179665 -0.13751312 -0.029033674 0.17072812 0.046628173 -0.15170439 0.13199213 0.11209258 -0.08958795 -0.066400975 -0.1775951 -0.088895604 0.033088807 -0.052317634 -0.04311433 -0.25095084 0.27272624 -0.1737637 0.035031945 -0.21082906 0.0502554 0.021079423 -0.2243548 0.08818157 0.06654266 -0.0064563784 0.084095955 -0.15625069 0.13009197 0.2362211 0.07664855 0.061575383 -0.017418385 0.16629417 -0.16837978 -0.021251049 0.048843075 -0.18416537 -0.0035346453 -0.045536205 -0.04535914 0.23266943 0.016743377 -6.194437E-4 -0.2393756 -0.19434606 -0.24478653 0.09072794 0.078488916 0.18624556 0.050218515 0.07368451 0.018486403 -0.27831385 0.0614329 0.012927422 -0.1477399 0.08552728 -0.07266128 -0.0038927488 0.25061992 -0.13281468 0.014148902 -0.031523395 0.078768 -0.23937818 0.007655956 -0.15527147 0.046877924 -0.0454381 -0.086161435 0.06880918 -0.034596004 -0.12421337 0.19349073 0.12021787 0.080428705 -0.08728717 0.30693072 -0.047136277 -0.25981492 0.1860273 -0.23296478 -0.011616143 0.014458702 -0.23825018 0.11247094 0.18605782 -0.02198538 -7.338927E-4 4.8157173E-5 -0.036713883 0.12861209 -0.24662703 -0.037319627 -0.15058474 0.29308406 -0.03256609 0.10397903 0.045142803 0.16135217 0.068514 0.011928297 0.0048653316 0.10774889 0.16180007 0.17188701 0.008575155 -0.25151232 0.032244943 -0.16716157 -0.12635867 -0.1074401 0.078224696 0.2218099 -0.22575958 0.052387424 -0.058122847 0.16913529 0.3088286 0.20563924 0.07325817 -0.1095763 0.10868225 -0.15087678 -0.16570264 -0.105269715 -0.20778778 0.123682864 0.21057567 0.011539253 -0.13493705 -0.040753897 -0.23360232 0.2323062 -0.19297454 0.22332214 -0.14210665 0.19861723 0.061076857 -0.023266679 -0.03711033 0.12858711 -0.10393427 0.17161192 0.14674379 -0.020623205 0.22957578 -0.13360766 0.24491876 0.034092803 0.21427538 -0.12990089 0.21023946 -0.074969344 -0.07043404 -0.008380536 -0.021851104 -0.13095441 -0.15103841 -0.025019491 -0.07100787 0.041820683 -0.18339399 0.12149647 -0.12021424 -0.2141321 -0.04256995 -0.07982677 0.27720016 0.029298717 -0.006011104 0.088203885 -0.073718354 -0.065375306 0.08052611 -0.059821706 -0.055310458 0.010682267 0.07795126 0.113676235 -0.17540278 0.13307968 0.10369845 -0.02500097 0.052290197 -0.1784187 0.07193022 -0.061615147 -0.11623337 0.079462565 0.07772417 0.06643205 0.06375323 0.113033056 -0.12268823 -0.16069634 -0.032626987 0.06588094 0.046049863 0.17273104 0.20615655 -0.059962608 -0.08625757 -0.0025986615 -0.07816898 0.08377708 -0.013890176 -0.025373308 0.10528942 -0.065044545 -0.21150042 -0.0019619884 -0.037992377 0.091887124 -0.09350337 0.0056473855 0.04515514 -0.09897823 0.080609426 -0.04095333 -0.12655507 -0.13840508 0.02250871 0.14218658 -0.09465604 0.080110446 -0.01669736 0.07526344 0.1578789 0.116577335 -0.0720271 0.18036377 -0.17622097 -0.12254082 0.070762195 -0.16017523 -0.08735156 0.031848863 -0.06502722 -0.09282309 0.05187675 0.042500574 0.004781118 0.005507188 0.19676892 0.1124623 0.082303494 0.06706215 0.0021425246 0.08952541 0.11108957 0.003356582 -0.028823534 0.11422968 -0.1497328 0.21168801 0.12687814 -0.060830753 -0.20117867 -0.069940746 -0.058672078 -0.11146987 0.051460065 0.14811629 0.2326471 -0.028406808 0.21869282 0.03282358 -0.11668999 0.11139479 -0.18400846 0.21931608 0.15581393 0.03199649 -0.18765141 0.12344 -0.175981 -0.008267939 0.090694726 0.106447466 -0.097627595 -0.07590909 -0.19216011 0.09264744 0.057134196 -0.1818948 -0.25110984 -0.025530413 -0.22834013 0.029093295 -0.15317869 -0.0071225134 0.01388418 0.20249374 0.092850044 -0.13177143 -0.21770486 -0.020074748 0.18600222 -0.107340775 0.0133908475 -0.14455996 -0.060475577 0.0041551245 0.08178749 0.043528356 -0.112077765 0.06128176 0.008816339 0.004092328 0.08306855 0.01928464 0.112181075 0.035574332 -0.07305721 0.17152132 0.030310286 0.0780245 -0.031851217 -0.22095571 -0.058149997 0.12386375 -0.0027483567 0.05194278 0.27257025 0.045687597 -0.07454027 0.045506705 -0.12448003 -0.075778775 0.007653984 -0.18161987 -0.09437938 0.08537599 0.10717184 -0.19143383 0.15566242 -0.08653652 -0.014391898 0.016418725 0.1004828 0.050158277 0.08093948 0.07270399 -0.09300851 0.124083385 -0.04292901 -0.03198437 0.15477099 -0.17065199 0.14396861 0.16722645 0.05081077 -0.06943333 0.07724846 0.12278909 0.08892053 -0.07980443 -0.047334056 0.121604934 0.0610923 -0.03127081 0.15542874 0.12198003 0.10259191 0.11814897 -0.2244572 0.20908906 0.23577276 0.1854511 0.016021058 0.039842226 0.11731517 0.09109572 0.026583519 0.2001304 -0.05764981 -0.14233775 -0.02814915 0.04761572 0.16094711 -0.24687402 0.053537033 -0.049542945 -0.17792884 -0.012372561 0.041328877 -0.011664353 -0.15332521 0.2143441 0.11826005 0.09237763 0.04008564 0.06095316 -0.024849573 -0.08580771 0.08957786 -0.15580963 -0.036629014 0.2198614 0.120508105 0.16387811 0.08944017 0.031324193 -0.22979137 -0.20056553 -0.058961485 0.06699581 0.008792241 -0.25047156 -0.0052244887 -0.08012283 0.18393986 -0.07764189 0.035577837 -0.14824606 -0.22608858 -0.02719589 -0.08808247 0.14386968 -0.18869926 0.15596253 -0.25053865 -0.0116494 0.022517687 -0.08378295 -0.01730994 -0.023213338 0.061708607 -0.132464 -0.21636756 0.24277228 0.086982735 -0.11965142 0.123545215 -0.16902827 -0.13108209 0.18416852 -0.16098326 -0.05683551 0.19218062 0.02405529 -0.010495987 0.12794444 0.05040568 0.059009187 0.11186178 -0.18044513 -0.10765453 0.20852768 -0.037784442 3.2719708E-4 -0.080964796 0.019537445 0.070532344 0.2042532 -0.10122259 0.08349515 -0.09584409 0.04793198 0.054438774 -0.026485924 -0.03444804 0.13964367 0.034538794 -0.20793658 0.21659258 -0.0695371 0.061577365 -0.18763173 0.0060681645 -0.14224213 0.13464615 0.07183713 -0.014456781 -0.02160407 -0.19546886 -0.030031178 -0.1396712 0.04465677 -0.1931739 0.23296747 -0.21891196 0.04050183 0.20790666 0.0811286 0.047541983 0.11506595 0.26237312 0.24965294 0.078080565 0.012665547 0.20541742 0.09413388 0.025871864 0.01424321 0.085917234 -0.07477709 -0.04475998 -0.107429564 -0.16142784 -0.0732459 0.12254052 0.28498173 -0.22190268 -0.19377397 0.0022709968 -0.09097962 -0.013319818 -0.17932515 -0.20726645 0.024868041 -0.0996783 0.13969949 -0.20153381 0.11606848 0.15218988 0.076382376 0.0037780611 0.023466408 -0.12779483 -0.16544022 -0.17839898 0.0068109655 0.14347042 -0.08957444 -0.04682268 0.03491858 0.06822751 -0.00785183 0.16533993 0.23651616 -0.0762112 -0.075642385 0.030235304 0.15467338 -0.21385555 -0.0529571 0.13127609 -0.16360155 -0.22612065 0.008916668 0.19421546 -0.058620166 -0.040791515 0.2929706 0.06715185 -0.0094283065 -0.005694752 -0.12459157 0.0860306 -0.19297889 0.033658415 0.12549525 -0.14247073 0.0018168006 0.13646024 0.10727599 0.17924474 -0.015794698 -0.16388439 0.10682432 0.0046608206 -0.09036602 0.09699304 0.11300483 0.053936873 -0.19833031 0.1963698 0.07920723 -0.24570414 -0.12341441 0.2412819 -0.11085563 -0.05145943 0.1111352 -0.023141911 -0.23592332 0.21345441 0.16604024 -0.18466534 0.03099781 0.0045627793 0.10454127 0.06854386 -0.120475724 -0.18429844 0.022223184 -0.007129657 0.052629326 -0.08699886 -0.08173964 -0.17487696 0.03361736 -0.18412863 0.17338635 -0.04664347 0.05183208 0.1201442 -0.25084502 -0.05922931 0.27633232 0.082509965 0.18797861 0.0038725885 -0.017031714 -0.08219343 -0.030925004 0.0062900605 0.14242762 0.06593182 -0.18945444 0.26072302 -0.059154566 0.1873904 0.14796999 0.1524926 0.17481942 -0.14357162 -0.13509445 0.107719876 0.009551182 0.11604108 -0.2350399 -0.0278598 0.036792643 0.25322554 0.033373445 -0.1510416 -0.22774863 0.19030279 0.16875514 -0.10264484 0.08998531 0.071129024 -0.18653846 0.23215756 0.120502554 -0.17294648 -0.21039717 -0.030386813 0.11019544 0.09261687 0.15777183 0.039519783 0.08533366 0.12863617 0.18766111 -0.10402454 -0.033847902 0.068444975 0.2200318 0.29434362 0.030133177 -0.17196439 -0.056522157 -0.05820953 -0.25724027 0.1953621 -0.18504252 -0.087127745 0.0990991 -0.030151317 -0.14972861 0.24764085 -0.04816857 -0.055413492 0.013596248 -0.10101836 -0.030868057 -0.17974107 -0.2040904 0.16841398 0.08208483 0.16930448 0.09339248 0.14218244 -0.009164983 -0.13587539 -0.27171052 0.06304275 0.046848588 0.057609953 -0.15942854 0.07869945 0.13063389 0.0042203097 0.19997396 -0.030333847 -0.08764448 0.17714062 -0.21978666 0.26311478 0.07418332 0.11103329 0.06013939 -0.021584861 -0.1609223 -0.22936514 -0.011124566 0.039145935 -0.19800194 -0.099020965 0.030443339 0.016119106 -0.08245496 -0.10122609 -0.21880794 0.021082748 0.17369343 -0.01684023 0.18157808 0.064053886 0.019866128 -0.117419414 0.011360758 -0.2321879 -0.21983512 0.07740022 0.15472952 0.032738965 -0.025101664 -0.03963886 0.012878957 0.07009926 -0.16345201 0.095539495 -0.021426305 -0.2129171 0.1369732 -0.08963907 0.113676675 -0.09921451 0.04493004 0.160109 0.0022134748 -0.001427002 0.20748587 -0.008805664 -0.070621215 -0.11627634 0.10020744 -0.1373311 0.13915733 -0.055131327 0.017566623 0.24531771 -0.04200267 -0.18078932 0.15253738 -0.14093003 0.16307732 0.1284109 0.22683108 -0.11533336 -0.09069816 0.034525163 0.07448774 -0.10206747 -0.045394648 -0.033804476 0.027210003 0.14466816 -0.051028475 0.06272273 -0.11027612 0.054159235 -0.045557186 -0.05327736 0.04060837 0.027970212 0.10012788 -0.08718105 0.1775506 0.10283359 -0.14207935 -0.20997593 0.08978213 0.2375887 0.12906115 -0.10977119 -0.14441592 -0.037985533 0.048650652 0.032535367 0.056870986 0.053709418 0.09693603 0.042917203 -0.078469194 -5.728229E-4 -0.24111918 -0.1623682 0.10493569 0.08681474 0.08010547 0.23498482 0.07021705 -0.061327096 -0.04645845 0.033523478 -0.122665405 0.11738972 -0.19891992 0.21337098 -0.036545902 -0.13464324 0.16143014 -0.12233392 -0.24011189 0.09785974 -0.07335109 -0.0011450641 -0.1437202 -0.25718272 -0.065166146 0.08951347 0.04342476 0.06625808 0.09329427 -0.11371416 0.14571525 0.043885175 -0.22199677 -0.05968684 0.011707119 -0.18922321 -0.10684217 0.065264426 -0.02567361 0.15486188 0.0073077837 -0.22591154 0.031268455 -0.03213956 0.22569992 0.25292316 -0.117180765 0.11388314 -0.086467646 0.048336703 -0.020661792 0.1447589 -0.09043358 -0.06294134 0.08818174 -0.088605285 0.046127584 0.11753563 -0.064672574 -0.054867357 0.25391456 0.09121954 -0.059412498 0.20236564 0.05691568 -0.08447094 -0.067881666 0.17101315 0.053929564 -0.053690013 0.07211896 0.1292985 0.11019318 0.0047940183 0.12365979 -0.10105925 -0.016511703 0.14847788 -0.13108207 -0.012091042 -0.065045096 0.100990534 0.05417169 -0.09205892 0.102589376 0.025763856 -0.09111359 -0.051646486 0.054180387 -0.12440738 -0.013009677 0.12066849 -0.010502425 0.11462827 0.14427711 0.057791885 0.23705734 0.06415219 0.16449948 -0.038501132 -0.018500987 0.056019057 -0.020597925 0.105839446 -0.055361874 0.17440042 -0.056124195 0.06275368 0.1144804 0.19155109 0.16222687 0.13890143 -0.19363022 0.08292027 -0.11068724 -0.017354617 -0.004134108 -0.008644832 4.6260486E-4 -0.031550784 -0.27900773 -0.07610019 -0.108108126 -0.07767969 0.082128435 0.09635168 0.07676144 0.10919967 0.105563045 -0.10558779 0.11252577 0.048790604 0.090009704 -0.10747494 -0.093268715 -0.05945881 -0.12116247 0.035459552 0.054114062 -0.17992826 -0.0808626 0.15664972 0.23374929 -0.013748131 0.1632311 -0.048507426 -0.2030093 -0.014422184 0.12915803 0.06907954 -0.095178075 -0.02612767 0.052677702 0.06629985 -0.027532725 -0.20098221 0.13647778 -0.21960254 -8.728804E-4 0.06930127 -0.13930313 -0.05807719 0.16131711 0.05179951 0.04388278 -0.24222018 0.0023338213 0.030224374 -0.0607076 0.103912495 -0.05245084 0.12191669 -0.13193247 0.113475405 0.0014829562 0.1157811 -0.0062692356 0.026718905 -0.039341144 -0.1387589 0.005178093 -0.2267 0.14420547 -0.07256937 0.04578333 -0.10973222 0.01636793 -0.094434366 -0.016933994 -0.040717497 -0.24446997 -0.04000029 -0.08827406 0.06351289 0.02574728 0.11347893 0.18229096 0.1949688 -0.23808731 -0.03211261 0.08323612 -3.1392748E-4 -0.1490317 0.10820553 -0.20478228 -0.074340604 0.12175393 0.12143929 -0.106991 -0.021193381 -0.04418194 0.026938556 -0.21932793 0.033157367 -0.08286164 -0.2670251 0.12443527 -0.061037254 0.06951993 0.15656964 -0.12892136 0.1832422 -0.2796234 0.080097534 -0.24044271 -0.2311785 -0.20144059 -0.16820182 -0.032460276 0.112258926 0.001126373 -0.28534508 -0.23313029 -0.065781236 0.06944349 -0.1419478 0.08601688 0.105207205 -0.06642458 -0.10145791 0.04940974 -0.1517327 0.07878791 -0.14035408 -0.04875815 0.16367243 -0.21578075 -0.11960598 0.059013348 0.0697723 0.014691259 0.053189676 -0.08793158 -0.007406103 -0.0240475 -0.041012827 -0.06979401 0.015735751 0.13411923 0.03034772 0.18289894 -0.07529969 -0.10752443 -0.064685576 0.1920117 0.07714542 0.10780824 0.0033095959 0.13271895 0.012266095 0.041818425 -0.019718716 -0.037519597 -0.05442528 -0.0042437464 0.04437757 -0.28806674 -0.0068171574 5.186341E-4 -0.084169276 0.21037774 -0.26306632 -0.06004502 0.23250113 -0.24604647 -0.112868294 0.2514535 0.19388759 -0.047562994 -0.058623347 -0.016002974 0.0215249 0.08808409 -0.08605737 0.19695452 0.15585934 -0.11914884 0.049354125 0.08105842 0.0239586 -0.088863246 -0.15533394 -0.21887207 0.16593222 0.10327023 0.0050791395 -0.13894117 -0.10846604 -0.01644818 0.13965012 0.14622259 0.12630834 0.14150509 0.058061436 -0.047544345 -0.020442946 -0.1839255 -0.08108919 -0.1898764 -0.23908718 -0.09279396 0.050451122 -0.1911782 0.214887 -0.1821536 -0.2349145 0.03542865 0.007144334 0.23917404 0.020632846 -0.24890098 0.048451528 0.095818326 0.13835964 -0.15412606 0.022648256 0.22913979 0.041554958 -0.01736837 -0.122202165 0.16111287 0.21588911 -0.18399581 0.029822415 0.103483565 0.03630945 0.07605736 -0.01582446 0.16415381 -0.040007185 -0.025159247 0.12208859 0.15477264 0.29152408 -0.065309286 -0.09433562 -0.09115401 -0.08818349 0.23858489 0.068809696 0.13627584 0.18786687 -0.138151 0.1903484 -0.027586399 -0.18324135 -0.08425818 0.10210843 -0.053083453 -0.08646011 -0.22563908 -0.20395038 0.028114282 0.06781985 -0.15219556 0.07770978 -0.00861401 -0.19796787 -0.05499735 0.04150559 0.05851969 0.012349606 -0.039113414 -0.013175404 0.16604984 -0.036659088 0.0896133 -0.26735866 -0.1155143 0.10083947 0.23833463 0.16338345 0.05770987 0.10796667 -0.0072472338 0.0061177304 0.14433005 0.06867823 0.1639539 -0.077508345 -0.014697514 -0.075147375 0.16584563 0.112877265 -0.012517238 -0.10831528 -0.0196605 0.16370606 -0.21683739 -0.10461023 -0.030220984 0.21822418 0.013827971 0.012478953 -0.10335329 0.07610997 0.14490332 -0.16877599 -0.08639311 -0.06913868 -0.06995488 -0.20229566 0.051873546 0.08193536 0.105096966 -0.08574449 -0.052004658 0.012289355 0.25772095 -0.016673796 -0.19319259 0.095629826 -6.776906E-4 -0.081434086 -0.2588938 -0.07979308 -0.026160987 -0.11588824 0.015309509 0.23920047 -0.062439505 -0.05859113 0.04053978 -0.09547454 -0.023667892 -0.099711955 0.014726412 -0.08632411 -0.11985132 0.023456592 0.08515715 0.099277064 -0.105323486 0.251904 0.1721173 0.050000444 0.12749247 -0.110710844 0.26649565 0.09946391 -0.03123497 -0.21699806 -0.03868271 -0.25832823 -0.23750228 -0.13924876 0.2087574 0.036723625 -0.079954 -0.02522058 -0.13811478 0.09854411 0.09711956 0.013530154 -0.17967248 -0.21378711 0.07318735 0.16156028 -0.08477286 0.019116953 -0.022276824 0.0093895 -0.26319313 -0.19466081 -0.14412667 0.09814667 0.056146137 0.08075896 0.008301748 0.060739275 0.019783266 0.14488414 0.049684923 -0.028466308 -0.1343975 0.13971333 0.048757162 -0.15791523 0.035364266 -0.042169537 -0.047501065 0.028236527 0.0010491369 0.25801897 0.099610455 0.17345181 0.15590075 0.11857095 0.12746671 0.16204616 0.12175368 2.6168255E-4 -0.071850136 -0.0547057 -0.01691486 -0.21601117 0.10135863 -0.16523719 -0.109753884 0.07639494 -0.040818356 -0.16492872 0.0368926 0.17683591 -0.16807549 0.1399211 -0.13164195 -0.13636711 -0.11582802 -0.055271618 0.1825076 0.1864024 -0.059756793 -0.096039735 -0.0022100573 -0.069246426 0.08292552 0.1899993 -0.16533248 0.21382688 -0.16160396 0.10704374 -0.05162894 -0.09974736 -0.07390393 -0.13511455 -0.11585579 0.012237269 0.11926031 -0.06742389 0.10623387 0.091205046 -0.020733964 -0.27403364 0.01581859 -0.0680708 -0.12833782 -0.03715754 -0.17920142 -0.022906667 0.06240077 -0.19505428 0.1392653 -0.06918684 -0.02702545 -0.11934714 0.17138362 -0.13954784 -0.08011079 -0.09209556 0.25447458 0.098230876 -0.029769968 -0.011354466 0.0025381309 -0.19100222 -0.1772561 -0.004761056 0.13927412 -0.06386057 -0.08645318 -0.0805143 0.066160396 0.053822063 -0.18744668 0.22146672 0.047868878 0.05463167 0.14798988 0.08539501 -0.03256732 0.008810253 0.09488161 0.03224254 -0.044925693 0.22820835 0.10293525 0.11720652 -0.18606679 -0.08108259 0.022069504 -0.18383293 0.17899732 -0.12271907 -0.04695808 0.02439963 0.003250245 0.053276606 -0.12084482 -0.19332133 -0.080969155 0.024191504 -0.01697127 -0.0330295 0.10232444 -0.017935231 0.08702923 -0.03384619 -0.027561935 -0.06279423 0.06359365 -0.042695787 0.110597126 0.10472695 0.12326409 -0.03393856 0.047166537 -0.2544021 0.047412254 -0.04434044 -0.19126914 0.21680619 0.12812893 -0.059771042 0.04950626 -0.038505003 0.23694092 0.059670877 -0.17359181 0.21473178 -0.029238783 0.017272364 -0.18046434 -0.26668924 -0.042246867 0.008842954 0.03425721 0.06117564 -0.11859988 -0.2644972 -0.058956027 -0.159134 0.2170583 -0.08637067 0.119859725 0.14993182 -0.01730119 0.06466391 -0.009856897 -0.21881767 0.033295777 -0.038334504 -0.1177799 -0.22736539 -0.015864115 -0.09359866 -0.034315247 -0.1444338 0.12410236 -0.048216533 -0.024692735 -0.008050221 -0.053690694 0.10080102 -0.13103175 -0.21112305 -0.037714843 0.1577104 0.08995341 -0.09912892 -0.02446779 0.17553714 0.08564868 -0.067663945 -0.120647356 0.036321532 0.19904827 0.24264568 -0.0053640953 0.19740194 0.045970667 0.025381204 0.013614321 -0.16115771 -0.12504798 -0.0060859495 -0.011143487 0.044765547 -0.23761573 -0.0124245025 0.04689787 0.022857012 -0.009215824 0.09084966 -0.01497645 0.06735735 -0.064943224 0.057178244 0.1455643 0.009375463 0.24170816 0.24951261 -0.06447442 -0.28055435 0.0075952834 0.19126354 -0.093740985 -0.15406284 -0.06796248 0.090895824 -0.07762286 -0.12958695 -0.06084464 0.0369789 -0.27085844 -0.047875922 -0.11401536 -0.02541577 -0.016695363 -0.09144339 -0.08801831 -0.016616758 0.090753764 -0.04967827 0.1062547 0.07501698 -0.012468729 0.04114781 -0.15274577 0.14898115 0.051131353 -0.015796237 0.013877268 0.06904943 0.19243355 0.026971253 0.19216219 0.19467539 -0.07661695 -0.053787272 0.15316379 -0.0070766523 -0.049048383 -0.2451562 0.0023002252 -0.1437162 0.124139376 -0.15919867 -0.12904917 0.16777268 0.15127325 -0.07754886 -0.10655992 0.0716653 -0.05217252 -0.023014773 0.14441212 0.2571872 -0.009221546 0.09170283 0.11837647 -0.095723845 0.023843644 0.079997286 -0.028451046 -0.047161907 -0.26699564 0.027146885 -0.07738407 0.049644016 0.2477553 -0.014262887 -0.14445895 0.050990153 -0.03789383 0.103545494 -0.077634424 0.10578961 -0.23137318 -0.13991286 -0.006574476 0.13695657 -0.011558067 -0.09934464 -0.23475237 -0.14058885 0.0011864261 -0.013735558 -0.26078176 -0.016204776 0.035776857 0.09250104 0.056218475 0.12667549 -0.089495696 -0.031495087 0.091167845 -0.210309 -0.004610113 -0.08567836 0.08172516 0.16595915 -0.07301611 -0.07186457 -0.19196992 0.17972384 0.07640446 -0.10247244 -0.15918282 0.17714427 0.04764151 -0.04354932 0.15562749 0.04680983 0.0409933 -0.039648354 -0.20450641 -0.049584936 0.14339949 0.10645379 -0.031285938 0.1159306 0.012733001 0.12205099 -0.060105197 0.0052932566 -0.044449557 0.0047863373 -0.22160834 -0.089357555 -0.02566814 -0.01963144 -0.05280996 -0.083116725 -0.25021252 -0.06216483 0.1882508 0.11357994 0.14304142 0.20722614 0.032797538 -0.2830228 -0.03256638 -0.11597971 0.115922146 -0.18780561 -0.009355448 -0.11103376 0.18446295 0.10129918 -0.024517348 -0.1419219 -0.087395735 -0.20267041 0.060492925 -0.0040757973 -0.030761763 0.12427326 0.06992228 -0.07536359 -0.054202076 -0.037238408 0.10686774 0.14100944 0.06624644 0.1563206 0.0679648 -0.12471082 -0.13361232 -0.028305344 0.21575871 -0.025231736 0.054214947 0.17456467 -0.0672468 0.06971801 -0.17523327 -0.12919389 0.122334346 -0.04389772 0.13058552 -0.22237332 -0.01058369 0.115481004 0.17511554 0.19508243 -0.013394266 0.10612899 -0.18927772 0.21348265 -0.1414027 -0.023761163 0.098787814 0.10611475 0.0492772 -0.069693804 -0.16212663 -0.056408174 0.19504498 -0.14928411 0.17251848 0.10775853 0.15537305 -0.0214287 0.28558594 -0.03180862 0.15883966 -0.008760748 0.005653233 0.07407931 0.0770936 0.08406342 0.1733492 -0.14558387 0.015699811 -0.0075424 -0.097783454 -0.04988688 -0.1120178 -0.11448915 0.01729225 -0.07470651 -0.15786295 0.22769803 0.0032062228 0.0894908 0.037531056 -0.04306209 0.03441654 -0.15813524 0.025294514 -0.10914142 -0.001403285 0.08659176 0.23119718 -0.01596438 0.13017102 0.023765251 0.12959008 -0.09439258 -0.078645326 0.10554812 0.061163448 -0.08051607 -0.014868341 0.079181306 -0.24475011 0.23863767 -0.12230801 -0.07327285 -0.056836464 0.042762753 -0.17660889 -0.01838187 -0.07119793 0.19535102 -0.2859962 -0.17851906 0.20450583 0.10549907 0.10400244 0.18050714 0.17639571 -0.20657168 0.07868878 0.04994875 -0.009182664 -0.16245717 0.036230683 -0.04065404 0.05249783 -0.068661265 -0.05934551 0.1609969 0.102696955 -0.01794091 0.22194797 0.02006467 -0.075828135 0.12160512 0.059154436 9.081893E-4 -0.0080562355 0.17239122 0.006303149 -0.057068434 0.17520344 0.022243913 0.111646466 -0.0032365548 0.119900554 0.20293611 -0.079433985 0.27023575 0.031952646 0.15106902 -0.080119535 -0.13414522 -0.2815132 -0.19132431 -0.20876944 -0.11265688 -0.056306917 0.10625158 0.2803323 -0.04655303 0.04040279 -0.16390395 -0.017069547 0.15908055 0.076069675 -0.12536706 0.14328764 -0.041123237 -0.05049149 0.12009274