0.0073384 -0.011303222 0.0105342455 -0.021317855 0.0525394 -0.06834449 -0.018243693 0.0053664306 -0.011776803 0.04489376 0.06292259 7.210274E-4 0.016084881 0.0056422967 -0.018320972 -0.036697924 -0.031343095 0.017844154 0.0018074826 -0.03969645 -0.032741398 0.008311427 0.049577974 -0.015950026 -0.014354666 0.012930079 0.0015727549 0.048294753 -0.031041024 0.013036207 0.06644935 0.017046357 0.07005468 0.04409275 0.0023904163 -0.04952991 0.041358333 -0.016543413 -0.008340068 0.062830046 0.010332704 -0.010776612 0.013254397 -0.016209085 -0.0075156847 0.012396247 -0.007548079 -0.022750491 -0.052554738 0.068973795 0.0043056156 0.0029676382 -0.009335497 -0.0188795 -0.009432788 0.022246908 -0.018789774 0.034340024 0.018549083 0.006447206 0.0039551696 -0.012725383 -0.027163146 -0.028718464 0.0027616909 0.03913895 -0.03592389 0.04290793 0.0031824484 -0.04332389 0.007921347 9.75881E-4 0.019852336 -0.011671113 0.053540647 -0.010852521 0.006368425 0.015669165 -0.04968165 -0.0057635815 -0.0015427619 0.00109651 -0.010188447 -0.027199961 -6.5726903E-4 -0.012678434 -0.04230572 0.07349457 0.0025199377 -0.027652148 0.04829353 -0.007614589 -0.03248524 0.019889975 0.0132583715 0.012407135 -0.006118234 -0.011084801 0.01770088 0.01250531 0.0061428626 0.013466829 -0.0031957051 -0.026719239 0.0029214823 -0.013958524 -0.03389335 0.06191405 -0.031350274 -0.001452778 0.015516988 0.0050032507 0.029220432 -0.0022637444 0.0027824743 0.042013556 -0.015717976 0.026128434 -0.019984528 0.0230758 -0.04085268 0.028533628 0.0048964517 -0.05314006 0.039110143 -0.0132293105 0.043274168 -0.0029065353 0.036663774 -0.04692498 -0.038796805 0.0064487737 0.04796798 -0.0055520236 0.022092938 -0.009336908 -0.024723666 -0.01494534 -0.053201493 0.038673338 0.04597544 0.055635903 0.020935712 -0.038979508 -0.02145007 -0.06923589 0.054267902 -0.033839554 0.035948362 0.0056071295 -0.033691656 0.008117554 0.016511526 -0.03888161 0.008149716 -0.029768778 0.058358718 0.019165728 -0.023527645 -0.01925351 0.01482332 -0.007883512 0.05916172 0.026721517 -0.017252266 0.013815916 0.037977654 0.015109312 -0.01789616 -0.032287978 0.035160363 0.05433095 -0.015372854 -0.005494863 -0.045052014 -5.839689E-4 0.04291089 -0.06113569 0.025029164 -0.0048755114 -0.012345975 0.024768766 -0.0080727935 -0.0041282224 -6.551417E-4 -0.009848746 -0.054969702 -0.013365359 0.04502446 7.8676536E-4 -0.06715099 -0.0040576058 9.983025E-4 -0.052506045 0.023046575 -0.0032530578 0.0019622995 0.008400385 0.01380544 -0.020728279 -0.011790392 0.017199196 -0.0015164162 -0.043600794 0.008663207 -0.02412434 0.003149715 -0.039453514 0.0029555762 -0.032585513 0.0110271 0.01213118 -0.04779389 -0.06633008 -1.6943118E-4 -0.0022135247 0.017878002 0.007194463 0.0038716807 0.007535104 -0.061058994 0.022100395 0.05422094 -0.052799497 0.032669112 -0.0047352896 -0.046620026 0.05761379 0.03592727 0.0068076556 0.044912964 -0.0374212 -0.017265383 0.034420207 0.003614375 -0.04563024 0.034777265 0.013935736 -0.025231129 -0.022246188 -0.049960036 -0.027509132 0.0023540086 -0.021483056 -9.3349547E-4 -0.06366355 0.059149582 -0.04269372 8.512353E-5 -0.06522678 0.022772156 0.01270791 -0.06358701 0.016579766 0.019173667 -0.002472467 0.011408201 -0.0448449 0.022022817 0.06512048 0.021994561 0.01079974 -0.0013004881 0.035009842 -0.041089267 -0.008091948 0.007305557 -0.053414594 -0.007991435 -4.887969E-4 -0.02413551 0.05427941 -0.005179859 0.0012001141 -0.066724904 -0.058837213 -0.06472797 0.017331295 0.008967014 0.037376385 0.013784975 0.008124354 0.005656022 -0.06895304 0.01266317 -0.0050626374 -0.04394381 0.020680029 -0.016296022 -0.0113895545 0.074919365 -0.042082213 -0.004455264 -0.008873363 0.029385077 -0.06573239 0.001608332 -0.040652834 0.0025025774 -0.026015395 -0.029053591 0.018792607 0.0031941521 -0.03616395 0.04701181 0.024473501 0.017573996 -0.0242892 0.0658595 -0.017426804 -0.061368413 0.040523164 -0.06289597 -0.018727964 5.400378E-4 -0.06550554 0.020942353 0.039016634 -0.0142665645 -0.00767643 -0.0082072755 -0.017460149 0.036157217 -0.07079897 -6.7040167E-4 -0.050736047 0.06111651 -0.0102610225 0.027780388 0.02610394 0.03938106 0.010605162 -0.009356629 -0.010484713 0.03380724 0.04365945 0.052040715 -0.019516457 -0.061494168 -0.0014567272 -0.046072174 -0.03777695 -0.040178787 0.006543877 0.047912296 -0.058749035 0.012898201 -0.02482177 0.050832752 0.07055476 0.04921865 0.013392689 -0.029275768 0.026684545 -0.032809466 -0.04657783 -0.035296448 -0.061379313 0.022381373 0.04898475 -0.005442591 -0.027647581 -0.0077642007 -0.061223697 0.04950197 -0.054239452 0.061317027 -0.05036072 0.048276167 0.010430893 -0.005139694 -0.011953565 0.024752678 -0.035930876 0.03895971 0.025149636 -0.011183172 0.05255248 -0.04286472 0.068600796 0.010295983 0.05842472 -0.030484775 0.05629119 -0.02329217 -0.014874833 0.006317469 -0.011706737 -0.030923424 -0.04860625 -0.015455265 -0.022512095 0.004087977 -0.051227592 0.034852087 -0.02780018 -0.039381713 -0.019630266 -0.031677116 0.06560585 0.012084731 0.0019089605 0.026628423 -0.02341985 -0.017918082 0.031070614 -0.026636897 -0.024866408 -8.682967E-4 0.011660295 0.015201194 -0.049988575 0.02702189 0.025156349 -0.005622417 0.0041254596 -0.04181563 0.010084799 -0.021569949 -0.036068097 0.011539369 0.017790448 0.019756401 0.008393398 0.015072699 -0.038292747 -0.037674922 -0.010169433 0.0074005597 1.1951374E-4 0.034644026 0.042738963 -0.020352453 -0.016505005 -4.0325723E-4 -0.027557148 0.03091099 -0.009061325 0.0026286724 0.027727086 -0.021018045 -0.040624242 -0.011885053 0.0011784805 0.018763993 -0.028389936 -0.009227124 -5.171244E-4 -0.034911703 0.024468403 -0.016352935 -0.03932401 -0.040437236 0.01207325 0.045183662 -0.030548403 0.015395392 -0.0060940543 0.0086435145 0.032315694 0.038361236 -0.01746893 0.035191063 -0.05132828 -0.032910362 0.02911213 -0.04745787 -0.032210905 0.006043205 -0.017640838 -0.01598719 0.02369431 0.010515186 0.0031276422 0.0010947646 0.044895303 0.032438785 0.016427051 0.019170078 0.0015399639 0.0075102737 0.022412037 -0.008491718 -0.014852205 0.025909215 -0.029724114 0.060177818 0.033733472 -0.031042138 -0.056365386 -0.025653178 -0.010235166 -0.0359357 0.004937156 0.031036185 0.05935639 -0.004273204 0.04535846 -0.0059788437 -0.030278774 0.018870445 -0.04133685 0.04479487 0.044004142 4.8195655E-4 -0.05746692 0.026106648 -0.04442667 -0.008205096 0.017587224 0.04381378 -0.030559465 -0.019356897 -0.055762257 0.027313191 0.019037602 -0.0521095 -0.055651825 -0.0056101354 -0.066914886 0.018584248 -0.04576339 -0.010766206 -0.0062964894 0.057287645 0.03323317 -0.031737596 -0.060492016 -0.0028315224 0.034025263 -0.038388092 -0.0037949649 -0.043619312 0.001830352 0.011358848 0.009769058 -0.0021277915 -0.042238154 0.015847135 -2.6067373E-4 -0.0013073686 0.009260128 -0.0012037519 0.021424092 0.0039769467 -0.013847011 0.03732232 0.0030192162 0.023437833 -4.7788155E-4 -0.062693976 -0.014640869 0.019913742 -0.00703326 0.012490967 0.05818602 0.005844458 -0.018042775 0.020622082 -0.040075447 4.9445155E-4 0.012572042 -0.050500788 -0.022665078 0.01607825 0.015109758 -0.05657069 0.046936456 -0.031845357 -0.015486855 -0.0028330944 0.015425618 0.0012727595 0.015520171 0.014305286 -0.031697612 0.019341165 -0.017352577 0.008333129 0.049756955 -0.044652697 0.038364306 0.044200394 0.014415885 -0.022713125 0.013846592 0.026012018 0.027147895 -0.025585063 -0.012382235 0.041051824 0.0068095927 -0.021688715 0.031085527 0.020339154 0.021541478 0.018930122 -0.048485212 0.043082796 0.058670595 0.052340575 1.648552E-5 0.0019345052 0.02425987 0.027044525 0.0033019278 0.04812707 -0.02320587 -0.038315374 0.0017064876 0.0048804088 0.032596625 -0.049791105 0.003974154 -0.022348242 -0.04606702 -0.0029980885 0.005907831 -0.008918287 -0.0337809 0.045199294 0.0356393 0.015056829 -0.006360882 0.008143111 -0.008442121 -0.026848905 0.012627914 -0.03878603 -0.013008938 0.04659022 0.019707495 0.051393382 0.01218658 0.013309413 -0.06394374 -0.0525801 -0.01302831 0.021702046 6.784594E-4 -0.06820887 -0.005696308 -0.0266438 0.041351438 -0.034368612 6.741488E-4 -0.04369234 -0.06321232 -0.005285211 -0.027962547 0.040235292 -0.037269097 0.028518686 -0.060565744 -0.012009491 0.015649976 -0.030373257 -7.6293707E-4 -0.011106996 0.0023052066 -0.041968733 -0.06064778 0.058488984 0.01378721 -0.03264602 0.020827819 -0.05450964 -0.04023769 0.056857493 -0.043476485 -0.0074804267 0.04791281 -0.0012691031 -0.014524732 0.04172523 0.015301903 0.007395598 0.026770126 -0.05778688 -0.038095597 0.047912262 -0.021411696 -0.012095071 -0.019342402 0.00997088 0.02454596 0.04730419 -0.03380898 0.022333188 -0.030076345 0.028806014 0.005987628 -0.01663884 -0.0168051 0.035279907 0.0066571594 -0.05518381 0.04928577 -0.019604411 0.0040371898 -0.05640775 0.006995281 -0.0335587 0.02809885 0.018243454 -0.015168068 -0.018099153 -0.056597322 -0.013935017 -0.045413643 0.013743815 -0.056560695 0.064338356 -0.0686378 0.020255357 0.06402042 0.033939548 -2.2962179E-4 0.042805474 0.0662115 0.06928965 0.008763656 0.0014479002 0.052485906 0.013418902 0.011664712 -0.0021071108 0.0130570475 -0.023285754 -0.0012280545 -0.03402895 -0.048201833 -0.0107644545 0.024986317 0.0592924 -0.06666132 -0.04438584 -0.011176865 -0.03866378 -0.008727777 -0.058914203 -0.041718617 0.006579478 -0.028070265 0.024128465 -0.06115352 0.017608399 0.033030745 0.011125904 -2.8081127E-5 -0.005101393 -0.041203037 -0.038530376 -0.045975644 0.0047653713 0.023114363 -0.021780958 -0.016732253 0.0060974453 0.0068913964 -0.01013284 0.031968977 0.05493055 -0.025200587 -0.02556988 0.0022993358 0.02643928 -0.05922002 -0.0051890253 0.036457747 -0.043752935 -0.052593995 -0.00685155 0.062662244 -0.017989723 -0.02164964 0.07387649 0.008381956 0.0020962125 -1.883526E-4 -0.025269592 0.023520527 -0.05571854 0.0154171605 0.019618446 -0.0351825 -0.009102287 0.035234004 0.028551282 0.046318103 -8.787798E-4 -0.03494724 0.020398898 -0.011212369 -0.033891357 0.015097021 0.022475228 0.018377895 -0.052221436 0.048873376 0.009271666 -0.058303297 -0.035004515 0.05402558 -0.024514671 -0.016826043 0.017488638 -0.00932068 -0.07029641 0.061317433 0.052060463 -0.054172143 -8.1061997E-4 0.004575024 0.020347448 0.012466468 -0.039567463 -0.054060187 -0.0015516337 -0.009284869 0.006632906 -0.039019432 -0.028830467 -0.04104665 -1.0669716E-5 -0.052620985 0.044824373 -0.017811825 0.023576988 0.03412615 -0.07412626 -0.00872454 0.06142545 0.015201669 0.044676404 2.4388992E-4 -0.014826803 -0.030109625 -0.0059539336 -0.0060591493 0.0427299 0.01885925 -0.047638837 0.07234251 -0.023291342 0.048645005 0.043190684 0.035319727 0.041219763 -0.043410998 -0.020862825 0.02182574 -0.0023339146 0.024475023 -0.06647006 -0.018114965 0.004564238 0.05457978 -3.1277034E-4 -0.049125254 -0.064408906 0.05729704 0.05099158 -0.030370561 0.015584633 0.012052903 -0.057831444 0.044804666 0.028171591 -0.046121363 -0.053866357 -0.01339188 0.020214915 0.013809703 0.042239293 0.008378751 0.021556554 0.027875682 0.03257809 -0.03122599 -0.019257795 0.0054076496 0.0528595 0.07508897 0.018215673 -0.052421987 -0.0283085 -0.02164191 -0.069249414 0.04024706 -0.04683915 -0.014505281 0.026345056 -0.013053087 -0.031574707 0.06183053 -0.025104586 -0.021037152 0.004322806 -0.032996885 -0.016984683 -0.050543714 -0.06068081 0.03144858 0.030774545 0.05011193 0.031656478 0.018795414 -0.011618233 -0.035902563 -0.07540075 0.018167874 0.014650183 0.011148688 -0.052113105 0.028851112 0.025669359 -0.007192851 0.056708124 -0.012376336 -0.027827311 0.034696285 -0.059444245 0.057349667 0.010513248 0.017131725 0.019186728 -0.016529081 -0.04538048 -0.07128217 -0.0030689468 0.009199375 -0.055545468 -0.029749628 0.014755565 0.013892488 -0.027452085 -0.032464635 -0.06638638 0.011246838 0.039826628 -0.009863967 0.034881637 0.01293157 3.738158E-4 -0.04131855 -0.010395967 -0.052526444 -0.05189937 0.013512879 0.028385472 -7.4325566E-4 -0.021410363 -0.0154835805 0.005990365 0.019400937 -0.03976726 0.02859411 -0.0056040445 -0.04768689 0.024371445 -0.036018506 0.028538452 -0.037625372 0.00364856 0.031614795 0.002589111 0.009539135 0.051766578 0.0010718909 -0.011177542 -0.033270117 0.031189617 -0.024557814 0.033800427 -0.024046354 0.0040198886 0.06323692 -0.0027134004 -0.051507473 0.028496247 -0.041270193 0.031659156 0.025801804 0.051438548 -0.038655847 -0.016108751 7.008693E-4 0.015426347 -0.018005684 -0.019879546 -0.014888861 0.0039284257 0.026633153 -0.022950623 0.025148235 -0.035029415 0.011585711 8.29197E-4 -0.0076235677